w1:
0.2990766512265253,-0.8409592610623751,-0.9745781607436971,-1.8364562784630523,0.11234125543084672,0.30897333219801726,3.182973844782863,0.917323609799081,0.09908204165068893,0.4292821114618093,-0.354891472009329,0.02136053205505768,-0.11760114200972606,0.7164634227584301,-0.6159996393816147,0.4326501911628421
0.9245629209817912,-0.08296802682241305,-1.314518991928496,-1.6148191482767844,-0.3417810065935022,0.520665498344109,-0.327023827433518,0.31037518432414496,0.8470518069517198,0.9845296774225548,0.027414497746256608,-0.28691246714024987,-1.3840592275823504,0.13842265135580523,0.781689234716157,0.8538816118333847
-0.02656725683523939,-1.0627246079719697,-2.6139185503078943,-0.49579385576326024,-0.49451511899302714,-0.09399501027877698,-1.737546457775061,-0.7397700757015122,-0.3742580183035935,-0.20679579952095195,0.5085192668753079,1.2378922290876595,-0.4162555913686423,-1.4532101697000546,0.09228161993879261,-5.333242157758023
0.968701793581611,1.6590320231155813,0.5678409184608885,-0.5054706815561101,-0.5356670229874296,0.37346163043525293,-0.5871094582013608,0.05827998530217057,-0.03563766610710217,4.727720704555561,-0.027943588849403997,-1.1127314178492291,-0.04563961732427602,0.1779430246026538,-1.8437991124168038,-1.1571376262672377
0.6781300331269996,-0.0386153800594342,-0.21573108932275933,0.40789117556163407,0.6421608917890063,-0.8687368610964958,-0.767701081073039,-0.14229220387873145,2.0288012393716155,0.029036296872721648,-1.2912967651177485,-0.025095533747640952,-0.13438880027154565,0.5766333533430219,1.0585342628318264,-0.1767469917696871
-0.17782293081657502,-1.310185726116695,0.030571982499274265,0.9718274766566517,-0.5185200835655382,-1.2723340197597848,-0.2420181348108882,0.43525029639823465,-0.332272161679023,0.14812720132269996,-1.286015110811691,0.33025884389258703,-0.18619209649061214,-0.8715617814660692,-1.7736910832452948,-0.7484840481849171
0.08961166052308145,-0.9673697720973334,-0.1325491679722779,-0.1274774130152829,-0.5901805507137738,-1.0368754972812726,-0.02080139520903407,0.18357237915885027,-1.1177524199561748,-0.3121980831516345,0.44333744826282395,0.2607329793232311,-0.3509716583066551,0.2174612305598295,-0.6527207690870186,0.16151562787424753
0.12289499695896769,0.026613699664664987,-0.4870353422387886,-0.6380031789614636,0.39491779018671214,0.1526613860709573,0.597326166027333,-0.29995172882821625,-0.4129898273222085,0.9089751700850823,-0.4400805204813164,0.2906151580106085,0.40020884756557906,-0.09386333537725054,0.2915872573617385,-0.5572978664872126
-0.8180078183248685,-0.010690133190170314,-0.4300832634336742,0.5653347353355158,-0.08001844991748452,0.17248549842396665,0.6513240479088187,0.3872151828667485,0.9183631324942773,-0.08392769127567021,0.03277510694955027,-0.12143165106032386,0.4794041285680136,0.12873756137764902,0.6066606357790276,1.1742656323056013
-1.0436305696477222,-0.5905430803861764,-0.05042862739532715,-0.302564748920671,1.6734189469055956,0.33347364236470406,-0.13863351128568802,-0.30451526455440886,-0.7200904591126165,-2.3001848522934982,1.085372127342217,2.556332261639913,-0.8634450879826512,-0.49927694242849596,-0.02977682592578937,-0.2808720999647729
1.6147911147225948,-0.1869638703178179,0.4493758600900012,0.7080307769546019,-0.6012345002539166,0.09553237822237748,-0.40030503911249266,1.1372307687263836,0.3875400809839067,0.9107149219555027,-0.16433637270924675,-0.031686367404865474,0.8488295965055672,-0.3002644228359246,0.582953250431024,1.2882542853701684
0.09903829124907673,1.9076304172593477,-0.7836481763270219,-1.0111725394635354,-0.06515023098541972,0.06421779509301465,0.5456437030440713,-0.6156487889050639,-0.028438364703180063,-0.047508431549074526,-0.20114536891762216,0.0,0.19561387527363405,1.0300228778287421,-2.280260640065931,1.3954110415479604
0.5544089626376911,-0.48281620725108226,1.786684687678418,-0.7631702491985977,-1.1039108347094941,0.4888575742720975,0.31321352375882155,-1.8223607281762608,-0.6991144141017961,0.832029707736868,-0.9586769628064683,0.3445173886482038,-0.3746966417401219,0.28013785040436123,0.6932917386338793,0.21189649450364123
-1.0902532373617888,-0.3890153167251176,-0.07422484891621994,-0.5934895901929164,-0.6993994637456663,0.009090705672328954,-0.623384731420605,0.061247082060149144,-0.6398020053293036,-0.1100728519059831,1.5545484263032763,0.23194493321196932,-0.5285359218826846,-0.44177176554146874,0.9112734575865417,-0.6068211068585012
b1:
-1.09351680045387,0.0,0.2794740724210597,-2.2153719595340347,0.6400445600670991,0.0,-1.2912261627543575,0.0,-0.8289479559183045,1.0725934052882802,0.03704063967433613,0.25861087797696847,-0.2615736998415293,-0.3563701690715157,-1.40694462978226,1.349709957875577
w2:
0.3949252219464706,-0.043506537842336365,0.8626068627291535,-0.06816261602160163,0.6840595587560026,0.44638251255504635,0.5075215354367043,0.04220134594583794,0.26487897233578017,0.25609418651716087,0.14663958172925215,0.08059874862329956,0.005655822762048131,-0.7012175387515522,0.6285006665456427,0.8631096643323523
0.6154503092788279,0.573348110417308,0.6673609800888245,0.49626691633155207,1.2782536265970874,0.1470185467549615,0.31276893430374897,0.4170728524807917,-0.6657970247020457,-0.3788529975267548,0.3664254339063379,-0.00755616996014919,0.7848009287044843,-0.12648275258060815,0.03367698791924721,-0.12483279310317916
0.31861884858823586,-0.10965918136855014,0.7842147459618256,0.22464499624840367,-0.28139733366116443,-0.5683473355756815,-0.7484025008335329,0.11297241572219728,-0.06130930220899547,-1.0501652219140263,-0.5536045640649003,-1.6649774494078002,0.6451069369879906,0.358491893690537,0.03341104313719051,0.5292732921364337
-0.3762979588603191,-0.08541768952700984,-0.29283317951536725,0.03617221773154483,0.3222816122097557,-0.045808498334785175,-0.27277258072478716,-0.8343374726344692,0.5630041447631983,0.07238105260671245,-1.1670059870339728,-0.8615014069817064,-0.6919206239127456,-0.6043608541811532,-0.44514762556595044,-0.023878365733096353
0.5210455138700401,0.07352760165035271,-0.7500112318426724,0.33946678099182337,-1.4905623691462089,-0.34747885863016403,0.04830456580118708,-0.1444606753520044,0.18626699509553646,-0.686687401804614,-0.22790793019413777,0.6028347674642693,-1.311307826662455,0.1627894386045973,-1.0651925288733002,0.5710606844506751
-0.10281735437910153,0.5213827153929966,0.023401652807971175,-0.6683703096519301,1.357882134530716,-0.2709987811155679,0.12879451110291826,2.4644488459927443,-0.25274433166827925,0.8121313290368226,0.11914927904147479,-0.48354397035011765,-1.2844988620973017,0.027567235465695273,0.2903966746554885,0.043556042381530505
0.25249618751019987,-0.10026742796673528,0.036571849414124245,-0.13577480673294223,0.1498524721991162,-0.37646285963979986,0.6419636673804332,0.44569873012096245,-0.4043080211014636,0.01751880551418894,-0.6064595900203988,0.151450249907799,-0.7999417436358841,-0.06372456455494294,-0.9090761655229811,-0.7054714783417713
-1.5953737457293244,0.338785111571143,-0.03411301484374267,0.7963400304407914,-0.14850658722553722,-0.3927721858546302,0.276128940995397,0.009020949193037892,1.2113841347178524,0.14797415447387263,3.026681703501989,0.01786261690669544,0.9351542108486497,0.0567549153809257,0.09825933555614122,0.5113200673846884
0.060960087275815755,-0.11723355775963824,-0.7596365700119923,-0.2004100142837102,1.0124529870553378,1.111467421160964,-0.184451679461236,0.15017100156689311,1.0126601687073273,-0.05766129259137573,-1.2938311968199199,0.13295661612633264,1.0590590664594066,0.0886708372906492,0.7945099133759868,-1.1233326811834723
1.0813892278692054,0.6198920466521232,-0.0016844914696985494,-0.1718803363080384,-0.16338610234325052,-0.17186097188654492,0.326259973482488,1.05507044776388,-0.3368058952997197,0.2791679397035961,1.0058721639843586,0.2476182810204543,0.06862455691056094,-0.1346999075123055,-0.4592355666530389,-1.6618184618313696
0.6629535237014647,0.08486607816767966,0.8231888060469743,-0.17498696562791793,0.026765463249805874,0.5499742596183528,0.20965954032674364,-1.4469563775243914,0.5109519148623967,-0.16194620752898498,0.05795361595937781,0.1959236459621278,-0.3476569976848958,-0.6512313817332255,-0.3400812624944203,-1.468316171838028
-0.06723066983543616,0.3653860915120738,-0.7277617875897956,0.37120241992857816,0.5671274582003096,-0.32041327041351675,1.155467384721986,-0.4169278589417778,0.26486963745397735,0.7630499720794732,1.2748433339843461,0.13534854774443347,0.004216964399750946,-2.835371261629936,0.7787489804940861,0.11755610334608466
1.033426933936949,0.8231589830709869,0.9452239477922556,1.0126863440517788,-0.9066499148462973,-0.7517820531875244,-0.16770786030271312,0.9613569978429877,1.0492315199918587,-0.4859601887291767,-0.46097822403709077,0.27953332936110314,0.40712408334461936,0.17077908387604193,0.03417507460781489,0.21121686786079863
-0.12282171915058337,1.2232498207223348,-0.010855213317502332,-0.052705886020296355,-0.030691609459297275,-1.03637002288687,-1.034465138386007,0.34578332230411835,-1.183264417256897,-2.755948068749736,-0.09345877539737513,-0.021291858508086126,0.889450201381703,0.8704269734791577,-1.289951499213235,0.08894615981012075
-1.2805090070748988,-1.5893404860698235,0.27569912097983695,-0.7858556773168724,0.06536804845588373,0.04911683882485432,-0.375828435226508,0.25877133639051997,-0.3799620173455359,-1.7239216926464012,1.841040583979538,0.29075458230906304,0.655612636893006,-0.8089775273334758,0.6924827120051203,1.1661921038577086
-0.20050617638983873,-0.46580962192639885,-1.2717483481590894,-0.8450766336622557,0.4347003572543503,-0.00797613813898125,-0.6842140651011559,0.9910119910671445,0.5155198129441372,1.1152768039927448,1.125247791827469,-0.0604742312858275,0.40807035764208444,0.5266301885723907,-1.0940664558294193,1.2778239508519802
b2:
0.16694325719868716,0.35077236537517703,-0.2663655132309588,0.0,-0.1576987383363747,0.9000239813073848,0.0,0.1136070243200463,-2.4101710676726613,-0.8579102711042976,0.0,-0.507622666029749,0.334310468764512,-0.2356429809597146,0.7771313921502152,0.570978050905645
w3:
-0.6382847706054318,1.7407531561305625,0.3427221719447437,0.06874253893395443
0.0691160365878696,1.4208351459625386,-0.2855011972745292,-0.48537941606616963
-0.04962962693115694,-0.7483903233106055,1.1537866869326683,0.3214539443425517
0.4937036378162093,0.2607312004728004,-0.9876681763478198,0.0028661999393809648
0.6766959631452245,-0.4605133563412481,-0.028051735680631115,0.988942685900601
-0.33904116061454337,-0.32961781704914567,0.07895896177655111,-0.06288290387136908
2.061744621351756,-1.2336184719058894,2.401528739430113,0.2615149169272221
-0.6243479546105541,4.224058932813833,1.2430320674646238,-0.6953232492463853
-0.31263008640369006,0.5371585442075634,-0.5655877843846377,0.4644516352662508
1.4465113567166954,-2.691164901368539,2.0459855288199207,-0.08025762323286023
-1.2326854127317237,0.4629542741023925,0.3170048287723505,-0.051630923296986486
0.6560135911384984,-0.3351262087620501,0.7499586871265211,-0.3021731786048287
0.13095094687615833,-0.45930707493620027,-0.4446325038145337,1.2992127601293808
1.7307366014074343e-05,-0.2033335682424922,-0.009728307192866888,1.8760725052302551
0.10957640410806735,-0.16693703027970125,0.07283045771216876,-1.9919685948103436
0.625811624513312,0.09679697944369456,0.01139289557138496,-0.023669984872294547
b3:
-0.11084198156784114,0.3273377938869718,-0.25247490632886027,-4.447201884353707
